<?xml version="1.0"?>
<opencv_storage>
<cascade>
  <stageType>BOOST</stageType>
  <featureType>HAAR</featureType>
  <height>23</height>
  <width>17</width>
  <stageParams>
    <boostType>GAB</boostType>
    <minHitRate>9.9500000476837158e-01</minHitRate>
    <maxFalseAlarm>5.0000000000000000e-01</maxFalseAlarm>
    <weightTrimRate>9.4999998807907104e-01</weightTrimRate>
    <maxDepth>1</maxDepth>
    <maxWeakCount>100</maxWeakCount></stageParams>
  <featureParams>
    <maxCatCount>0</maxCatCount>
    <featSize>1</featSize>
    <mode>BASIC</mode></featureParams>
  <stageNum>12</stageNum>
  <stages>
    <!-- stage 0 -->
    <_>
      <maxWeakCount>3</maxWeakCount>
      <stageThreshold>-1.3140763044357300e+00</stageThreshold>
      <weakClassifiers>
        <_>
          <internalNodes>
            0 -1 25 -1.3808801770210266e-01</internalNodes>
          <leafValues>
            9.0476191043853760e-01 -9.7731566429138184e-01</leafValues></_>
        <_>
          <internalNodes>
            0 -1 30 -1.3114830851554871e-01</internalNodes>
          <leafValues>
            5.5109035968780518e-01 -9.3886959552764893e-01</leafValues></_>
        <_>
          <internalNodes>
            0 -1 2 1.2294536828994751e-01</internalNodes>
          <leafValues>
            -8.8785094022750854e-01 7.3977893590927124e-01</leafValues></_></weakClassifiers></_>
    <!-- stage 1 -->
    <_>
      <maxWeakCount>3</maxWeakCount>
      <stageThreshold>-1.4249130487442017e+00</stageThreshold>
      <weakClassifiers>
        <_>
          <internalNodes>
            0 -1 10 1.9092674553394318e-01</internalNodes>
          <leafValues>
            -9.6963948011398315e-01 7.2727274894714355e-01</leafValues></_>
        <_>
          <internalNodes>
            0 -1 0 1.5412569046020508e-01</internalNodes>
          <leafValues>
            -8.7414854764938354e-01 6.3859289884567261e-01</leafValues></_>
        <_>
          <internalNodes>
            0 -1 4 3.1176346540451050e-01</internalNodes>
          <leafValues>
            -8.0038034915924072e-01 4.1887488961219788e-01</leafValues></_></weakClassifiers></_>
    <!-- stage 2 -->
    <_>
      <maxWeakCount>3</maxWeakCount>
      <stageThreshold>-1.0606547594070435e+00</stageThreshold>
      <weakClassifiers>
        <_>
          <internalNodes>
            0 -1 9 -4.3322473764419556e-02</internalNodes>
          <leafValues>
            8.1395345926284790e-01 -9.7348487377166748e-01</leafValues></_>
        <_>
          <internalNodes>
            0 -1 29 8.8735900819301605e-02</internalNodes>
          <leafValues>
            -8.7407529354095459e-01 8.1420511007308960e-01</leafValues></_>
        <_>
          <internalNodes>
            0 -1 8 1.1617537587881088e-01</internalNodes>
          <leafValues>
            -7.7627813816070557e-01 7.8690540790557861e-01</leafValues></_></weakClassifiers></_>
    <!-- stage 3 -->
    <_>
      <maxWeakCount>3</maxWeakCount>
      <stageThreshold>-1.4927135705947876e+00</stageThreshold>
      <weakClassifiers>
        <_>
          <internalNodes>
            0 -1 35 -1.5542212128639221e-01</internalNodes>
          <leafValues>
            9.4594591856002808e-01 -9.6254682540893555e-01</leafValues></_>
        <_>
          <internalNodes>
            0 -1 26 7.1701347827911377e-02</internalNodes>
          <leafValues>
            -8.7397950887680054e-01 5.4288983345031738e-01</leafValues></_>
        <_>
          <internalNodes>
            0 -1 24 -1.5656556934118271e-03</internalNodes>
          <leafValues>
            3.4381270408630371e-01 -9.2051869630813599e-01</leafValues></_></weakClassifiers></_>
    <!-- stage 4 -->
    <_>
      <maxWeakCount>3</maxWeakCount>
      <stageThreshold>-1.4283663034439087e+00</stageThreshold>
      <weakClassifiers>
        <_>
          <internalNodes>
            0 -1 31 -1.8675792962312698e-02</internalNodes>
          <leafValues>
            6.1702126264572144e-01 -9.6946567296981812e-01</leafValues></_>
        <_>
          <internalNodes>
            0 -1 34 6.5115466713905334e-03</internalNodes>
          <leafValues>
            -8.7432372570037842e-01 6.0581022500991821e-01</leafValues></_>
        <_>
          <internalNodes>
            0 -1 22 5.0580538809299469e-03</internalNodes>
          <leafValues>
            -7.9145163297653198e-01 4.1542303562164307e-01</leafValues></_></weakClassifiers></_>
    <!-- stage 5 -->
    <_>
      <maxWeakCount>4</maxWeakCount>
      <stageThreshold>-2.2635309696197510e+00</stageThreshold>
      <weakClassifiers>
        <_>
          <internalNodes>
            0 -1 5 3.0391957610845566e-02</internalNodes>
          <leafValues>
            -9.6952378749847412e-01 6.5217393636703491e-01</leafValues></_>
        <_>
          <internalNodes>
            0 -1 15 2.4284231662750244e-01</internalNodes>
          <leafValues>
            -8.6953902244567871e-01 5.5704081058502197e-01</leafValues></_>
        <_>
          <internalNodes>
            0 -1 13 -4.9533769488334656e-03</internalNodes>
          <leafValues>
            5.1568460464477539e-01 -7.9308879375457764e-01</leafValues></_>
        <_>
          <internalNodes>
            0 -1 20 5.7762337382882833e-04</internalNodes>
          <leafValues>
            3.6862075328826904e-01 -9.9093091487884521e-01</leafValues></_></weakClassifiers></_>
    <!-- stage 6 -->
    <_>
      <maxWeakCount>3</maxWeakCount>
      <stageThreshold>-1.1300063133239746e+00</stageThreshold>
      <weakClassifiers>
        <_>
          <internalNodes>
            0 -1 1 1.7284774780273438e-01</internalNodes>
          <leafValues>
            -9.5817488431930542e-01 5.5555558204650879e-01</leafValues></_>
        <_>
          <internalNodes>
            0 -1 32 2.3313637822866440e-02</internalNodes>
          <leafValues>
            -8.4127664566040039e-01 6.3395434617996216e-01</leafValues></_>
        <_>
          <internalNodes>
            0 -1 33 -1.6114685684442520e-02</internalNodes>
          <leafValues>
            6.6944521665573120e-01 -6.4884400367736816e-01</leafValues></_></weakClassifiers></_>
    <!-- stage 7 -->
    <_>
      <maxWeakCount>3</maxWeakCount>
      <stageThreshold>-1.2230821847915649e+00</stageThreshold>
      <weakClassifiers>
        <_>
          <internalNodes>
            0 -1 16 -8.6733540520071983e-03</internalNodes>
          <leafValues>
            6.9999998807907104e-01 -9.5480227470397949e-01</leafValues></_>
        <_>
          <internalNodes>
            0 -1 17 2.0928272604942322e-01</internalNodes>
          <leafValues>
            -8.7876188755035400e-01 7.6500338315963745e-01</leafValues></_>
        <_>
          <internalNodes>
            0 -1 11 -9.4206333160400391e-02</internalNodes>
          <leafValues>
            6.1048197746276855e-01 -9.1394591331481934e-01</leafValues></_></weakClassifiers></_>
    <!-- stage 8 -->
    <_>
      <maxWeakCount>3</maxWeakCount>
      <stageThreshold>-1.2845487594604492e+00</stageThreshold>
      <weakClassifiers>
        <_>
          <internalNodes>
            0 -1 14 1.3336649537086487e-01</internalNodes>
          <leafValues>
            -9.8091602325439453e-01 7.4468082189559937e-01</leafValues></_>
        <_>
          <internalNodes>
            0 -1 23 1.4067831635475159e-01</internalNodes>
          <leafValues>
            -8.6905580759048462e-01 9.2142367362976074e-01</leafValues></_>
        <_>
          <internalNodes>
            0 -1 38 -6.7411479540169239e-04</internalNodes>
          <leafValues>
            -9.8057729005813599e-01 5.6542313098907471e-01</leafValues></_></weakClassifiers></_>
    <!-- stage 9 -->
    <_>
      <maxWeakCount>3</maxWeakCount>
      <stageThreshold>-1.3828995227813721e+00</stageThreshold>
      <weakClassifiers>
        <_>
          <internalNodes>
            0 -1 19 5.0788596272468567e-02</internalNodes>
          <leafValues>
            -9.8458576202392578e-01 6.1538463830947876e-01</leafValues></_>
        <_>
          <internalNodes>
            0 -1 3 3.3204518258571625e-02</internalNodes>
          <leafValues>
            -9.6306228637695313e-01 4.5134004950523376e-01</leafValues></_>
        <_>
          <internalNodes>
            0 -1 18 2.3559916764497757e-02</internalNodes>
          <leafValues>
            -8.4965384006500244e-01 6.7525953054428101e-01</leafValues></_></weakClassifiers></_>
    <!-- stage 10 -->
    <_>
      <maxWeakCount>3</maxWeakCount>
      <stageThreshold>-1.5611249208450317e+00</stageThreshold>
      <weakClassifiers>
        <_>
          <internalNodes>
            0 -1 27 9.0929962694644928e-02</internalNodes>
          <leafValues>
            -9.6161228418350220e-01 4.3999999761581421e-01</leafValues></_>
        <_>
          <internalNodes>
            0 -1 37 -3.0958080664277077e-02</internalNodes>
          <leafValues>
            3.4127590060234070e-01 -8.9391446113586426e-01</leafValues></_>
        <_>
          <internalNodes>
            0 -1 6 -2.1367038134485483e-03</internalNodes>
          <leafValues>
            -9.8835366964340210e-01 2.9440185427665710e-01</leafValues></_></weakClassifiers></_>
    <!-- stage 11 -->
    <_>
      <maxWeakCount>5</maxWeakCount>
      <stageThreshold>-1.5437128543853760e+00</stageThreshold>
      <weakClassifiers>
        <_>
          <internalNodes>
            0 -1 36 -9.0051859617233276e-02</internalNodes>
          <leafValues>
            6.6666668653488159e-01 -9.2236596345901489e-01</leafValues></_>
        <_>
          <internalNodes>
            0 -1 28 -2.5352887809276581e-02</internalNodes>
          <leafValues>
            5.0865489244461060e-01 -8.5536557435989380e-01</leafValues></_>
        <_>
          <internalNodes>
            0 -1 12 5.0510689616203308e-02</internalNodes>
          <leafValues>
            -6.6036182641983032e-01 6.1787986755371094e-01</leafValues></_>
        <_>
          <internalNodes>
            0 -1 21 -4.9362110439687967e-04</internalNodes>
          <leafValues>
            -9.9228972196578979e-01 3.7375503778457642e-01</leafValues></_>
        <_>
          <internalNodes>
            0 -1 7 1.1234305053949356e-01</internalNodes>
          <leafValues>
            -7.3566454648971558e-01 5.2062553167343140e-01</leafValues></_></weakClassifiers></_></stages>
  <features>
    <_>
      <rects>
        <_>
          0 3 9 13 -1.</_>
        <_>
          3 3 3 13 3.</_></rects>
      <tilted>0</tilted></_>
    <_>
      <rects>
        <_>
          0 6 6 13 -1.</_>
        <_>
          3 6 3 13 2.</_></rects>
      <tilted>0</tilted></_>
    <_>
      <rects>
        <_>
          0 6 8 16 -1.</_>
        <_>
          4 6 4 16 2.</_></rects>
      <tilted>0</tilted></_>
    <_>
      <rects>
        <_>
          0 14 12 3 -1.</_>
        <_>
          4 14 4 3 3.</_></rects>
      <tilted>0</tilted></_>
    <_>
      <rects>
        <_>
          1 3 15 18 -1.</_>
        <_>
          6 3 5 18 3.</_></rects>
      <tilted>0</tilted></_>
    <_>
      <rects>
        <_>
          1 11 8 4 -1.</_>
        <_>
          1 11 4 2 2.</_>
        <_>
          5 13 4 2 2.</_></rects>
      <tilted>0</tilted></_>
    <_>
      <rects>
        <_>
          1 11 5 2 -1.</_>
        <_>
          1 12 5 1 2.</_></rects>
      <tilted>0</tilted></_>
    <_>
      <rects>
        <_>
          2 1 15 8 -1.</_>
        <_>
          7 1 5 8 3.</_></rects>
      <tilted>0</tilted></_>
    <_>
      <rects>
        <_>
          2 7 11 9 -1.</_>
        <_>
          2 10 11 3 3.</_></rects>
      <tilted>0</tilted></_>
    <_>
      <rects>
        <_>
          2 10 12 2 -1.</_>
        <_>
          6 10 4 2 3.</_></rects>
      <tilted>0</tilted></_>
    <_>
      <rects>
        <_>
          3 0 10 8 -1.</_>
        <_>
          3 4 10 4 2.</_></rects>
      <tilted>0</tilted></_>
    <_>
      <rects>
        <_>
          3 2 14 9 -1.</_>
        <_>
          10 2 7 9 2.</_></rects>
      <tilted>0</tilted></_>
    <_>
      <rects>
        <_>
          3 15 13 6 -1.</_>
        <_>
          3 17 13 2 3.</_></rects>
      <tilted>0</tilted></_>
    <_>
      <rects>
        <_>
          4 0 2 14 -1.</_>
        <_>
          4 0 1 7 2.</_>
        <_>
          5 7 1 7 2.</_></rects>
      <tilted>0</tilted></_>
    <_>
      <rects>
        <_>
          4 0 5 12 -1.</_>
        <_>
          4 4 5 4 3.</_></rects>
      <tilted>0</tilted></_>
    <_>
      <rects>
        <_>
          4 1 8 12 -1.</_>
        <_>
          4 5 8 4 3.</_></rects>
      <tilted>0</tilted></_>
    <_>
      <rects>
        <_>
          4 9 3 5 -1.</_>
        <_>
          5 9 1 5 3.</_></rects>
      <tilted>0</tilted></_>
    <_>
      <rects>
        <_>
          4 10 7 12 -1.</_>
        <_>
          4 14 7 4 3.</_></rects>
      <tilted>0</tilted></_>
    <_>
      <rects>
        <_>
          5 11 4 6 -1.</_>
        <_>
          5 13 4 2 3.</_></rects>
      <tilted>0</tilted></_>
    <_>
      <rects>
        <_>
          5 14 12 5 -1.</_>
        <_>
          9 14 4 5 3.</_></rects>
      <tilted>0</tilted></_>
    <_>
      <rects>
        <_>
          6 0 4 4 -1.</_>
        <_>
          6 0 2 2 2.</_>
        <_>
          8 2 2 2 2.</_></rects>
      <tilted>0</tilted></_>
    <_>
      <rects>
        <_>
          6 1 4 2 -1.</_>
        <_>
          6 1 2 1 2.</_>
        <_>
          8 2 2 1 2.</_></rects>
      <tilted>0</tilted></_>
    <_>
      <rects>
        <_>
          6 10 1 6 -1.</_>
        <_>
          6 12 1 2 3.</_></rects>
      <tilted>0</tilted></_>
    <_>
      <rects>
        <_>
          7 0 7 8 -1.</_>
        <_>
          7 4 7 4 2.</_></rects>
      <tilted>0</tilted></_>
    <_>
      <rects>
        <_>
          7 2 3 17 -1.</_>
        <_>
          8 2 1 17 3.</_></rects>
      <tilted>0</tilted></_>
    <_>
      <rects>
        <_>
          7 5 4 12 -1.</_>
        <_>
          7 9 4 4 3.</_></rects>
      <tilted>0</tilted></_>
    <_>
      <rects>
        <_>
          7 5 10 8 -1.</_>
        <_>
          7 5 5 4 2.</_>
        <_>
          12 9 5 4 2.</_></rects>
      <tilted>0</tilted></_>
    <_>
      <rects>
        <_>
          8 1 6 8 -1.</_>
        <_>
          8 5 6 4 2.</_></rects>
      <tilted>0</tilted></_>
    <_>
      <rects>
        <_>
          8 8 4 14 -1.</_>
        <_>
          8 8 2 7 2.</_>
        <_>
          10 15 2 7 2.</_></rects>
      <tilted>0</tilted></_>
    <_>
      <rects>
        <_>
          8 10 3 12 -1.</_>
        <_>
          8 14 3 4 3.</_></rects>
      <tilted>0</tilted></_>
    <_>
      <rects>
        <_>
          9 3 8 19 -1.</_>
        <_>
          13 3 4 19 2.</_></rects>
      <tilted>0</tilted></_>
    <_>
      <rects>
        <_>
          9 5 8 1 -1.</_>
        <_>
          13 5 4 1 2.</_></rects>
      <tilted>0</tilted></_>
    <_>
      <rects>
        <_>
          9 8 4 7 -1.</_>
        <_>
          11 8 2 7 2.</_></rects>
      <tilted>0</tilted></_>
    <_>
      <rects>
        <_>
          9 9 6 5 -1.</_>
        <_>
          11 9 2 5 3.</_></rects>
      <tilted>0</tilted></_>
    <_>
      <rects>
        <_>
          10 6 2 6 -1.</_>
        <_>
          10 8 2 2 3.</_></rects>
      <tilted>0</tilted></_>
    <_>
      <rects>
        <_>
          11 2 6 15 -1.</_>
        <_>
          14 2 3 15 2.</_></rects>
      <tilted>0</tilted></_>
    <_>
      <rects>
        <_>
          11 4 4 11 -1.</_>
        <_>
          13 4 2 11 2.</_></rects>
      <tilted>0</tilted></_>
    <_>
      <rects>
        <_>
          11 13 2 10 -1.</_>
        <_>
          11 18 2 5 2.</_></rects>
      <tilted>0</tilted></_>
    <_>
      <rects>
        <_>
          16 0 1 9 -1.</_>
        <_>
          16 3 1 3 3.</_></rects>
      <tilted>0</tilted></_></features></cascade>
</opencv_storage>
